// Auto-generated neural network weights and biases
#ifndef NN_WEIGHTS_H
#define NN_WEIGHTS_H

// Layer 0
const float W0[10][5] = {
  {-0.327815, -0.566778, -1.463124, 0.389444, 0.498820},
  {-0.921900, -0.035802, -1.547454, -0.761444, 0.945972},
  {-0.467680, 0.548614, 0.867303, 1.817477, 2.283572},
  {1.146811, 1.516365, -0.936849, 0.207997, 0.171210},
  {-1.325729, -0.536979, -1.198845, 0.678916, -0.802207},
  {-0.541655, 0.914260, 1.702593, -0.715539, -1.971923},
  {-0.030982, 2.591180, -0.406260, 1.316365, -0.100581},
  {0.606161, -0.096955, 0.120601, 0.276179, -2.229731},
  {-0.269124, 0.407295, -0.313724, -0.368829, 0.918214},
  {-0.139243, -1.543233, 2.170959, -0.253024, 0.521977},
};
const float Bias0[10] = {-0.063757, 0.397842, 0.826542, 1.257260, -1.573890, -0.171429, -0.504519, 1.635175, 1.137354, 1.395266};

// Layer 1
const float W1[2][10] = {
  {1.369894, -0.675297, -0.164499, -2.353023, -1.481754, 1.451686, 2.254200, -2.907795, -2.217752, -0.132331},
  {-1.408333, -1.682225, 0.900370, -0.361159, 0.440002, 1.973634, -0.593063, -0.146303, -1.373195, 0.834086},
};
const float Bias1[2] = {-0.784608, -1.946078};

#endif // NN_WEIGHTS_H
